digraph Tree {
node [shape=box, style="filled, rounded", color="black", fontname="helvetica"] ;
edge [fontname="helvetica"] ;
0 [label="worst radius <= 16.795\ngini = 0.468\nsamples = 569\nvalue = [212, 357]\nclass = benign", fillcolor="#afd7f4"] ;
1 [label="worst concave points <= 0.136\ngini = 0.159\nsamples = 379\nvalue = [33, 346]\nclass = benign", fillcolor="#4ca6e7"] ;
0 -> 1 [labeldistance=2.5, labelangle=45, headlabel="True"] ;
2 [label="gini = 0.03\nsamples = 333\nvalue = [5, 328]\nclass = benign", fillcolor="#3c9ee5"] ;
1 -> 2 ;
3 [label="gini = 0.476\nsamples = 46\nvalue = [28, 18]\nclass = malignant", fillcolor="#f6d2b8"] ;
1 -> 3 ;
4 [label="mean texture <= 16.11\ngini = 0.109\nsamples = 190\nvalue = [179, 11]\nclass = malignant", fillcolor="#e78945"] ;
0 -> 4 [labeldistance=2.5, labelangle=-45, headlabel="False"] ;
5 [label="gini = 0.498\nsamples = 17\nvalue = [8, 9]\nclass = benign", fillcolor="#e9f4fc"] ;
4 -> 5 ;
6 [label="gini = 0.023\nsamples = 173\nvalue = [171, 2]\nclass = malignant", fillcolor="#e5823b"] ;
4 -> 6 ;
}